{
  "x_mean": [
    12.0,
    1.5000001192092896
  ],
  "x_std": [
    2.0,
    0.5999999642372131
  ],
  "g_lo": [
    1.0,
    20.0,
    5.999999848427251e-05
  ],
  "g_hi": [
    3.0,
    48.0,
    0.0003000000142492354
  ],
  "w_min_fixed": 1.8,
  "w_max_fixed": 3.0,
  "W0": [
    [
      -0.886378288269043,
      1.3100535869598389
    ],
    [
      0.17932529747486115,
      -1.3394063711166382
    ],
    [
      -1.1054621934890747,
      -0.10367213189601898
    ],
    [
      0.39271825551986694,
      0.2566142976284027
    ],
    [
      -0.275391548871994,
      1.1073843240737915
    ],
    [
      0.37186169624328613,
      -0.2655542194843292
    ],
    [
      -0.22536684572696686,
      -1.1951842308044434
    ],
    [
      -0.8417913317680359,
      0.2764343023300171
    ],
    [
      0.3715735971927643,
      -0.9260848164558411
    ],
    [
      0.7028203010559082,
      0.5676393508911133
    ],
    [
      -1.3525731563568115,
      0.016123943030834198
    ],
    [
      0.780471920967102,
      -1.2472316026687622
    ],
    [
      -0.14187949895858765,
      -0.24046343564987183
    ],
    [
      -1.268601894378662,
      0.16818632185459137
    ],
    [
      -1.6939053535461426,
      -1.065923810005188
    ],
    [
      0.22345994412899017,
      -0.35118770599365234
    ],
    [
      1.2781003713607788,
      -0.7844381332397461
    ],
    [
      0.35716405510902405,
      -0.8365086317062378
    ],
    [
      1.066414713859558,
      -0.15132971107959747
    ],
    [
      -0.4623682498931885,
      -1.2039707899093628
    ],
    [
      0.23024362325668335,
      0.8963894248008728
    ],
    [
      0.9720188975334167,
      0.5399759411811829
    ],
    [
      -0.9378621578216553,
      0.8562245965003967
    ],
    [
      -0.5772943496704102,
      -1.0447763204574585
    ]
  ],
  "b0": [
    -1.0431910753250122,
    -0.40071529150009155,
    -0.10367217659950256,
    0.5812805891036987,
    -0.14060457050800323,
    0.9772360920906067,
    -0.9069035649299622,
    0.8480373024940491,
    -0.74205482006073,
    -0.6171903610229492,
    0.668224573135376,
    0.4667593538761139,
    -0.6071996092796326,
    0.09899262338876724,
    -0.5036114454269409,
    0.8904269337654114,
    0.2710992395877838,
    0.9551592469215393,
    -0.04801667109131813,
    -1.1124039888381958,
    -0.3390640914440155,
    1.0466359853744507,
    -0.3464747369289398,
    -0.4969579875469208
  ],
  "W1": [
    [
      -1.9997178316116333,
      -0.8876976370811462,
      0.03595053404569626,
      0.22872163355350494,
      0.6474789977073669,
      0.010781667195260525,
      1.1070290803909302,
      0.4762639105319977,
      -0.009270070120692253,
      0.43005216121673584,
      0.3245253562927246,
      1.2076575756072998,
      0.005206778645515442,
      -0.40653151273727417,
      1.4111708402633667,
      0.16911816596984863,
      -0.19702313840389252,
      -0.29848042130470276,
      -0.5531865954399109,
      -1.437069296836853,
      -0.08193500339984894,
      0.5020976662635803,
      1.066145658493042,
      0.9798845052719116
    ],
    [
      1.1818265914916992,
      0.3889535963535309,
      0.5162586569786072,
      -0.6758451461791992,
      -0.0069062295369803905,
      -0.14873382449150085,
      -0.10299624502658844,
      0.07700897008180618,
      -0.450319766998291,
      0.3837890625,
      0.1551084667444229,
      -0.018974173814058304,
      -0.019100353121757507,
      0.14204421639442444,
      0.7294014692306519,
      0.08831252157688141,
      -0.005523866508156061,
      0.015440372750163078,
      -0.01643233746290207,
      -0.1303272396326065,
      0.0836978480219841,
      -0.45967385172843933,
      0.19644558429718018,
      -0.005160375498235226
    ],
    [
      -1.2249765396118164,
      -0.3971315920352936,
      0.1693965345621109,
      0.3623007833957672,
      0.4518835246562958,
      -0.00768666248768568,
      1.0217080116271973,
      0.09823424369096756,
      -0.0008341087377630174,
      -0.8986417651176453,
      -0.1386677771806717,
      0.4733421504497528,
      -0.12387678772211075,
      0.3263082802295685,
      0.4879036545753479,
      0.10784448683261871,
      0.13535648584365845,
      0.15787208080291748,
      0.2145521342754364,
      -0.6950394511222839,
      0.1038050428032875,
      0.384962260723114,
      0.040696464478969574,
      0.33833515644073486
    ],
    [
      0.31120774149894714,
      -0.9789988398551941,
      -0.07847979664802551,
      0.5916141867637634,
      0.1132751926779747,
      -0.13355962932109833,
      -0.4556027948856354,
      0.07533377408981323,
      -0.7959760427474976,
      0.5275015234947205,
      0.43568816781044006,
      -2.0489864349365234,
      -0.13493682444095612,
      -0.2149001955986023,
      -0.41548705101013184,
      0.2256873995065689,
      -0.7627174854278564,
      -0.038374774158000946,
      -0.20365643501281738,
      -0.2796018123626709,
      0.6305071711540222,
      0.2520226240158081,
      -0.006601201836019754,
      -0.512350857257843
    ],
    [
      0.3480496406555176,
      0.3539145588874817,
      0.12889249622821808,
      -0.4414725601673126,
      0.33650609850883484,
      0.047472041100263596,
      0.10695591568946838,
      0.04512695595622063,
      -0.5081248879432678,
      0.305764377117157,
      0.3527601659297943,
      -0.6601030230522156,
      0.12741133570671082,
      -0.145157128572464,
      0.13307833671569824,
      -0.2732003331184387,
      0.2768360674381256,
      -0.1870448738336563,
      0.7251759767532349,
      -0.31715553998947144,
      0.41438913345336914,
      0.05858520045876503,
      0.31648728251457214,
      0.16028037667274475
    ],
    [
      -1.5419355630874634,
      0.49978265166282654,
      -0.3138674199581146,
      0.036408137530088425,
      0.6546576619148254,
      0.17159634828567505,
      0.1210487112402916,
      0.5789952874183655,
      -0.1345793455839157,
      0.14033102989196777,
      0.0685051903128624,
      0.13297311961650848,
      -0.17039503157138824,
      -0.050104640424251556,
      -0.834264874458313,
      0.07036959379911423,
      -0.8426740169525146,
      -0.06496141105890274,
      -0.6055139899253845,
      -0.10210330784320831,
      0.025951603427529335,
      0.1038704589009285,
      -0.19209307432174683,
      -0.23193244636058807
    ],
    [
      -0.05859041213989258,
      0.2810647487640381,
      -0.3623467683792114,
      -0.1894887238740921,
      -0.13007736206054688,
      -0.003496257122606039,
      0.3188547194004059,
      0.8890445232391357,
      0.12003124505281448,
      -0.20087000727653503,
      -0.3703475296497345,
      0.2238008826971054,
      -0.16328580677509308,
      -1.484474539756775,
      0.8294129967689514,
      -0.27660828828811646,
      0.24900221824645996,
      -0.011462042108178139,
      -0.09229986369609833,
      -2.433220863342285,
      0.11326205730438232,
      -0.3862493932247162,
      -0.062450021505355835,
      0.3353220820426941
    ],
    [
      -0.18530817329883575,
      -0.5088441967964172,
      -0.0019515804015100002,
      0.39126166701316833,
      0.07367910444736481,
      0.2937537729740143,
      0.5677046775817871,
      -0.08739170432090759,
      -0.2563299834728241,
      -0.29254022240638733,
      -0.32893240451812744,
      0.14386774599552155,
      0.11958059668540955,
      0.4914497137069702,
      0.19748243689537048,
      -0.05560078099370003,
      0.21563021838665009,
      0.2048039436340332,
      0.3159589171409607,
      -0.459073930978775,
      0.07327444851398468,
      0.11654095351696014,
      -0.05317980423569679,
      0.2995264530181885
    ],
    [
      -1.3275196552276611,
      -0.9987238645553589,
      0.14820708334445953,
      0.26230791211128235,
      0.2149815410375595,
      0.10120214521884918,
      1.6264023780822754,
      -0.24475301802158356,
      -0.30967846512794495,
      -0.5875527858734131,
      -0.046133123338222504,
      0.5937659740447998,
      -0.04506687819957733,
      -0.029553644359111786,
      0.887191891670227,
      0.15183526277542114,
      0.16489359736442566,
      0.018780702725052834,
      -0.16891621053218842,
      -1.1129190921783447,
      -0.0868726372718811,
      0.5159241557121277,
      0.09948334097862244,
      0.8417101502418518
    ],
    [
      0.5200263857841492,
      -1.0036647319793701,
      0.2876114547252655,
      -0.11420270055532455,
      0.03244292736053467,
      -0.18930897116661072,
      -0.13552047312259674,
      -0.1775970607995987,
      0.015562662854790688,
      0.8371534943580627,
      0.45373815298080444,
      -0.8225075006484985,
      -0.08882828056812286,
      0.22891946136951447,
      -0.33574312925338745,
      -0.012836518697440624,
      -0.11234929412603378,
      -0.2682584226131439,
      -0.11411044746637344,
      0.26583656668663025,
      0.22971631586551666,
      0.016371794044971466,
      0.1661355048418045,
      -0.19234001636505127
    ],
    [
      0.6585668325424194,
      -0.15418660640716553,
      0.271977037191391,
      -0.2648155093193054,
      0.321635901927948,
      -0.4784809947013855,
      0.5477268099784851,
      0.039307016879320145,
      -0.44216418266296387,
      0.28685063123703003,
      0.24625805020332336,
      -0.17204934358596802,
      -0.12202761322259903,
      0.4129258394241333,
      0.2081969976425171,
      -0.6848123669624329,
      -0.38898423314094543,
      -0.7173972725868225,
      -0.438196063041687,
      0.8016946315765381,
      -0.05081876739859581,
      -0.24561800062656403,
      0.35644781589508057,
      0.019409218803048134
    ],
    [
      -0.20398719608783722,
      0.8540009260177612,
      0.057694561779499054,
      0.20752675831317902,
      -0.7901553511619568,
      0.1896940916776657,
      -0.08859074860811234,
      -0.6453624367713928,
      0.033701904118061066,
      0.05262347310781479,
      -0.12511177361011505,
      0.2890176773071289,
      0.12671324610710144,
      -0.0836167261004448,
      0.351389616727829,
      0.3872855007648468,
      0.5699442625045776,
      0.34546464681625366,
      0.6478914022445679,
      0.47130534052848816,
      -0.3695208430290222,
      0.06096555292606354,
      -0.13967835903167725,
      0.04315132275223732
    ],
    [
      0.8946995735168457,
      -1.3255164623260498,
      0.3644888401031494,
      -0.6998937129974365,
      0.2767515778541565,
      -0.9835253357887268,
      -0.6915002465248108,
      0.22421759366989136,
      0.31437599658966064,
      -0.038270317018032074,
      0.1588578224182129,
      -0.6163712739944458,
      -0.15235406160354614,
      0.4879249930381775,
      0.45837047696113586,
      -0.8857160210609436,
      0.035338420420885086,
      -0.7153928875923157,
      0.0854257121682167,
      0.19613006711006165,
      0.22349236905574799,
      -0.4265809655189514,
      0.4514504671096802,
      0.09880972653627396
    ],
    [
      0.21333171427249908,
      -0.7407724261283875,
      0.40893393754959106,
      0.16189050674438477,
      -0.7450613975524902,
      -0.22711573541164398,
      1.4731433391571045,
      0.2825901210308075,
      0.20079877972602844,
      0.06351634114980698,
      0.34778067469596863,
      -0.4148184359073639,
      0.062416642904281616,
      0.5926352143287659,
      -0.8875436186790466,
      0.08056335151195526,
      -0.505133867263794,
      -0.216278076171875,
      0.008237930946052074,
      1.5743316411972046,
      -0.16467717289924622,
      0.20029056072235107,
      0.12063469737768173,
      -0.4112115502357483
    ],
    [
      1.141892433166504,
      0.40445008873939514,
      0.381161630153656,
      -0.19844825565814972,
      -0.06059958040714264,
      0.39484894275665283,
      -0.16533389687538147,
      0.30896976590156555,
      -1.362260103225708,
      0.5532851219177246,
      0.42986053228378296,
      -1.5333504676818848,
      -0.15160545706748962,
      0.21941445767879486,
      1.251245141029358,
      0.4743606150150299,
      -0.32652872800827026,
      0.18902547657489777,
      -0.05775270611047745,
      -0.41530466079711914,
      0.30522421002388,
      -0.06580567359924316,
      0.055900488048791885,
      0.24781858921051025
    ],
    [
      -0.5055363178253174,
      0.09089137613773346,
      0.3700467348098755,
      0.42721620202064514,
      -0.36023780703544617,
      0.0275716632604599,
      0.6105467081069946,
      -0.5719490647315979,
      -0.051019057631492615,
      -0.86665940284729,
      -0.03415330499410629,
      0.32090118527412415,
      0.1859864890575409,
      0.2907394468784332,
      0.4412825405597687,
      -0.03205757215619087,
      0.3021763861179352,
      0.2269691824913025,
      0.45873382687568665,
      -0.0690525695681572,
      0.030915096402168274,
      0.25452539324760437,
      -0.2066245824098587,
      0.20886459946632385
    ],
    [
      1.0798507928848267,
      1.2686370611190796,
      -0.013193369843065739,
      -0.017872776836156845,
      0.24346287548542023,
      0.2007707804441452,
      -0.6177640557289124,
      0.3584131598472595,
      0.6383540630340576,
      -0.3186781406402588,
      0.26218315958976746,
      0.3369966149330139,
      -0.007400199770927429,
      -0.4175429344177246,
      -0.10152992606163025,
      0.27953609824180603,
      0.3017161786556244,
      0.19435469806194305,
      0.1008288711309433,
      0.9568423628807068,
      0.1442902386188507,
      0.062415529042482376,
      0.3864791989326477,
      0.20749124884605408
    ],
    [
      -1.9423269033432007,
      -0.8808267116546631,
      -0.045099854469299316,
      0.1359517127275467,
      0.56092768907547,
      0.2121998369693756,
      0.7673956155776978,
      0.48650670051574707,
      -0.018908528611063957,
      -0.49738389253616333,
      0.042903486639261246,
      0.2775481343269348,
      -0.1990109533071518,
      -0.02185480110347271,
      0.7130093574523926,
      -0.024869833141565323,
      0.269695907831192,
      0.10765335708856583,
      0.0760071873664856,
      -1.1646654605865479,
      0.0542038232088089,
      0.40117332339286804,
      0.7697247266769409,
      0.580041229724884
    ],
    [
      1.3671373128890991,
      1.4096704721450806,
      -0.5472184419631958,
      -0.07047069072723389,
      0.5806037187576294,
      0.27620217204093933,
      -1.0015475749969482,
      0.5458382964134216,
      0.6005237102508545,
      -0.18990753591060638,
      0.761207640171051,
      0.07544063031673431,
      -0.04602836072444916,
      -0.8843135833740234,
      -0.029796425253152847,
      0.08636770397424698,
      1.2048463821411133,
      0.4130765199661255,
      0.1505865603685379,
      1.2346062660217285,
      -0.025500228628516197,
      0.17645445466041565,
      1.0385618209838867,
      -0.11932346969842911
    ],
    [
      0.15846461057662964,
      0.4880943298339844,
      0.13323967158794403,
      0.4342978000640869,
      0.10358433425426483,
      0.3748948276042938,
      0.1461980640888214,
      -0.10187424719333649,
      0.3322058916091919,
      -0.954940676689148,
      -0.1841258853673935,
      0.051347777247428894,
      0.18707001209259033,
      0.20801927149295807,
      -0.038156554102897644,
      0.24860712885856628,
      0.4548356831073761,
      0.2873789370059967,
      0.4460090696811676,
      -0.09754351526498795,
      -0.03802439570426941,
      0.351457417011261,
      -0.0002557002881076187,
      0.24931953847408295
    ],
    [
      -0.5051795244216919,
      -0.220936119556427,
      -0.146635964512825,
      0.3998839557170868,
      0.2527898848056793,
      0.27413663268089294,
      0.4242854118347168,
      0.1650105118751526,
      -0.13341663777828217,
      -0.8154659271240234,
      -0.061259638518095016,
      0.10644065588712692,
      -0.05846802890300751,
      -0.02638954296708107,
      0.4465925395488739,
      0.3084949254989624,
      0.026536352932453156,
      0.33100658655166626,
      0.05624617636203766,
      -0.28588515520095825,
      -0.0730917751789093,
      0.13284817337989807,
      0.27192434668540955,
      0.06135626509785652
    ],
    [
      -1.3798377513885498,
      -0.35238462686538696,
      0.706693708896637,
      0.7075031995773315,
      -0.5561509728431702,
      0.3586422801017761,
      1.682808518409729,
      -0.5506036877632141,
      -0.6375072002410889,
      -0.866448700428009,
      -1.1960277557373047,
      0.13248328864574432,
      -0.05225391685962677,
      0.9653276801109314,
      0.6594820618629456,
      0.5232610702514648,
      0.32612624764442444,
      0.4207625091075897,
      0.5589321255683899,
      -0.9621496796607971,
      0.23715344071388245,
      0.6984153389930725,
      -0.6404945254325867,
      0.4605400860309601
    ],
    [
      0.467932790517807,
      -0.22033211588859558,
      -0.8859820365905762,
      0.48534438014030457,
      0.026176584884524345,
      0.1526765078306198,
      -0.43235209584236145,
      0.07823723554611206,
      -0.687485933303833,
      0.6956582069396973,
      0.6012681722640991,
      -0.994006872177124,
      -0.02623775601387024,
      -1.4821168184280396,
      -0.2542913556098938,
      0.4942232072353363,
      -0.6027628183364868,
      0.5245921015739441,
      -1.1622177362442017,
      -0.2714797258377075,
      0.4907208979129791,
      0.6275345087051392,
      0.14533796906471252,
      0.10751353204250336
    ],
    [
      0.27966296672821045,
      -1.1079169511795044,
      0.23517149686813354,
      0.06368039548397064,
      0.28096410632133484,
      -0.19458384811878204,
      -1.032348394393921,
      0.20836150646209717,
      -0.30283066630363464,
      0.43893980979919434,
      0.3421630859375,
      -0.8396816253662109,
      0.0219297856092453,
      -0.38551828265190125,
      -0.42588549852371216,
      -0.2071344554424286,
      0.29890909790992737,
      -0.006100309547036886,
      0.36143797636032104,
      -0.5444844365119934,
      0.28381460905075073,
      0.16499151289463043,
      0.1415596753358841,
      -0.3605674207210541
    ]
  ],
  "b1": [
    0.19976110756397247,
    -0.13143277168273926,
    0.08982749283313751,
    0.18795159459114075,
    0.10352633148431778,
    0.08387380838394165,
    -0.28265559673309326,
    0.388468861579895,
    0.20844906568527222,
    0.07486166059970856,
    -0.1415155529975891,
    0.06285983324050903,
    -0.20268240571022034,
    0.06895089894533157,
    0.3186548948287964,
    0.10883727669715881,
    0.20665311813354492,
    0.0437864325940609,
    0.2245415300130844,
    0.2331981509923935,
    0.3851476311683655,
    0.45183008909225464,
    0.2634035646915436,
    -0.0633307695388794
  ],
  "W2": [
    [
      0.17807132005691528,
      -0.027968790382146835,
      0.35776257514953613,
      -0.6439036726951599,
      0.16535073518753052,
      -0.21930955350399017,
      0.3694989085197449,
      0.26759037375450134,
      0.14479878544807434,
      -0.21545803546905518,
      -0.5434077978134155,
      0.49200573563575745,
      -0.5874690413475037,
      -0.3238312602043152,
      -0.6288353800773621,
      0.44622427225112915,
      0.4113839268684387,
      0.31503826379776,
      0.6848172545433044,
      0.2960239052772522,
      0.29705581068992615,
      0.22206135094165802,
      -0.6500527858734131,
      -0.2237858921289444
    ],
    [
      0.9221467971801758,
      -1.0384128093719482,
      0.8054904341697693,
      -0.4737042486667633,
      -0.48197925090789795,
      0.4483928978443146,
      2.3347344398498535,
      0.5190634727478027,
      0.6411907076835632,
      0.152627095580101,
      0.11439889669418335,
      -0.4112149477005005,
      -0.1031392514705658,
      1.0876502990722656,
      -1.1139452457427979,
      0.43958449363708496,
      -0.7901173830032349,
      0.6494302749633789,
      -0.9996857643127441,
      0.0489477813243866,
      0.19983722269535065,
      0.6823654770851135,
      -1.1335874795913696,
      -0.4562309980392456
    ],
    [
      -0.8099949955940247,
      0.46798262000083923,
      -0.1138378456234932,
      0.5382035374641418,
      0.26864123344421387,
      -1.154341220855713,
      -0.2645482122898102,
      0.0859922468662262,
      -0.25058630108833313,
      1.063359022140503,
      0.6101793050765991,
      0.19563455879688263,
      0.29787948727607727,
      0.832921028137207,
      0.6623551845550537,
      0.31126394867897034,
      -0.21503834426403046,
      -0.6453826427459717,
      -0.36901330947875977,
      0.2113393098115921,
      -0.17745983600616455,
      0.693804919719696,
      -0.04921392351388931,
      0.31049588322639465
    ]
  ],
  "b2": [
    -0.04326961562037468,
    0.009278814308345318,
    0.013603642582893372
  ],
  "out_gains": [
    "Kp_v",
    "Ki_v",
    "K_vin_rate"
  ]
}